svm_type c_svc
kernel_type rbf
gamma 0.0175439
nr_class 27
total_sv 29
rho 0 0 0 0 0 0 0 0.801293 0 0 0.733594 0 0 0 0 0 0 0 0 0 0 0 0 0 0 0 0 0 0 0 0 0 0.555063 0 0 0.485243 0 0 0 0 0 0 0 0 0 0 0 0 0 0 0 0 0 0 0 0 0.865598 0 0 0.798453 0 0 0 0 0 0 0 0 0 0 0 0 0 0 0 0 0 0 0 0.738106 0 0 0.669863 0 0 0 0 0 0 0 0 0 0 0 0 0 0 0 0 0 0 0.865598 0 0 0.931636 0 0 0 0 0 0 0 0 0 0 0 0 0 0 0 0 0 0.801293 0 0 0.733594 0 0 0 0 0 0 0 0 0 0 0 0 0 0 0 0 0.676019 0 0 0.60724 0 0 0 0 0 0 0 0 0 0 0 0 0 0 0 0.86446 0 0 0.797879 0 0 0 0 0 0 0 0 0 0 0 0 0 0 0 -0.929883 -0.801293 -0.066581 -0.615011 -0.737008 -0.801293 -0.674939 -0.800175 -0.676019 -0.676019 -0.615011 -0.738106 -0.931041 -0.676019 -0.801293 -0.676019 -0.738106 -0.615011 0 0.798453 0 0 0 0 0 0 0 0 0 0 0 0 0 0 0 0.545707 0 0 0 0 0 0 0 0 0 0 0 0 0 0 0 -0.545707 -0.797879 -0.733594 -0.606696 -0.669309 -0.60724 -0.60724 -0.545707 -0.669863 -0.86446 -0.60724 -0.733594 -0.60724 -0.669863 -0.545707 0 0 0 0 0 0 0 0 0 0 0 0 0 0 0 0 0 0 0 0 0 0 0 0 0 0 0 0 0 0 0 0 0 0 0 0 0 0 0 0 0 0 0 0 0 0 0 0 0 0 0 0 0 0 0 0 0 0 0 0 0 0 0 0 0 0 0 0 0 0 0 0 0 0 0 0 0 0 0 0 0 0 0 0 0 0 0 0 0 0 0 0 0 0 0 0 0 0 0 0 0 0 0 0 0
label 1 2 3 4 5 6 7 8 9 10 11 12 13 14 15 16 17 18 19 20 21 22 23 24 25 26 27
nr_sv 1 1 1 1 1 1 1 1 2 1 1 2 1 1 1 1 1 1 1 1 1 1 1 1 1 1 1
SV
4 4 4 4 4 4 4 4 4 4 4 4 4 4 4 4 4 4 4 4 4 4 4 4 4 4 1:1 2:1 3:1 4:1 56:1 
-4 4 4 4 4 4 4 4 4 4 4 4 4 4 4 4 4 4 4 4 4 4 4 4 4 4 4:1 5:1 6:1 7:1 8:1 
-4 -4 4 4 4 4 4 4 4 4 4 4 4 4 4 4 4 4 4 4 4 4 4 4 4 4 3:1 9:1 10:1 56:1 
-4 -4 -4 4 4 4 4 4 4 4 4 4 4 4 4 4 4 4 4 4 4 4 4 4 4 4 3:1 11:1 12:1 13:1 14:1 56:1 
-4 -4 -4 -4 4 4 4 4 4 4 4 4 4 4 4 4 4 4 4 4 4 4 4 4 4 4 3:1 15:1 16:1 56:1 
-4 -4 -4 -4 -4 4 4 4 4 4 4 4 4 4 4 4 4 4 4 4 4 4 4 4 4 4 17:1 
-4 -4 -4 -4 -4 -4 4 4 4 4 4 4 4 4 4 4 4 4 4 4 4 4 4 4 4 4 13:1 18:1 38:1 
-4 -4 -4 -4 -4 -4 -4 4 4 4 4 4 4 4 4 4 4 4 4 4 4 4 4 4 4 4 3:1 4:1 19:1 20:1 56:1 
-0.8617593515899743 -0.9388971493663879 -0.8416143535949637 -0.8815537425877493 -0.8416143535949637 -0.8617593515899743 -0.9010032044343979 -1.613910722967242 1.607077435174966 3.138240648410026 4 0.9201162538990834 1.627222433169977 0.8617593515899743 1.633705113965017 2.379373804547245 0.9010032044343979 0.9010032044343979 0.9201162538990834 0.8815537425877493 0.8211102318335539 0.9010032044343979 0.8617593515899743 0.9010032044343979 0.8815537425877493 0.9201162538990834 3:1 19:1 21:1 22:1 23:1 56:1 
-3.138240648410026 -3.061102850633612 -3.158385646405036 -3.118446257412251 -3.158385646405036 -3.138240648410026 -3.098996795565602 -2.386089277032758 2.392922564825033 0.8617593515899742 4 3.079883746100917 2.372777566830023 3.138240648410026 2.366294886034983 1.620626195452755 3.098996795565602 3.098996795565602 3.079883746100917 3.118446257412251 3.178889768166446 3.098996795565602 3.138240648410026 3.098996795565602 3.118446257412251 3.079883746100917 3:1 56:1 57:1 
-4 -4 -4 -4 -4 -4 -4 -4 -4 4 4 4 4 4 4 4 4 4 4 4 4 4 4 4 4 4 3:1 22:1 24:1 56:1 
-4 -4 -4 -4 -4 -4 -4 -4 -4 -4 4 4 4 4 4 4 4 4 4 4 4 4 4 4 4 4 21:1 22:1 23:1 25:1 
-0.1355412418361667 -0.2618926609342641 -0.1025401665785025 -0.1679649279300771 -0.0347781892107747 -0.1355412418361667 -0.1998215971206605 -2 -4 -0.1025401665785025 -0.231128536508628 0.231128536508628 2 0.1355412418361667 2 2 0.1998215971206605 0.1998215971206605 0.231128536508628 0.1679649279300771 0.06895478731679995 0.1998215971206605 0.1355412418361667 0.1998215971206605 0.1679649279300771 0.231128536508628 3:1 15:1 19:1 26:1 56:1 
-3.864458758163833 -3.738107339065736 -3.897459833421498 -3.832035072069923 -3.965221810789225 -3.864458758163833 -3.80017840287934 -2 -4 -3.897459833421498 -3.768871463491372 3.768871463491372 2 3.864458758163833 2 2 3.80017840287934 3.80017840287934 3.768871463491372 3.832035072069923 3.9310452126832 3.80017840287934 3.864458758163833 3.80017840287934 3.832035072069923 3.768871463491372 3:1 15:1 56:1 
-4 -4 -4 -4 -4 -4 -4 -4 -4 -4 -4 -4 4 4 4 4 4 4 4 4 4 4 4 4 4 4 4:1 25:1 27:1 28:1 
-4 -4 -4 -4 -4 -4 -4 -4 -4 -4 -4 -4 -4 4 4 4 4 4 4 4 4 4 4 4 4 4 15:1 18:1 19:1 
-4 -4 -4 -4 -4 -4 -4 -4 -4 -4 -4 -4 -4 -4 4 4 4 4 4 4 4 4 4 4 4 4 3:1 6:1 31:1 32:1 56:1 
-4 -4 -4 -4 -4 -4 -4 -4 -4 -4 -4 -4 -4 -4 -4 4 4 4 4 4 4 4 4 4 4 4 6:1 19:1 33:1 34:1 
-4 -4 -4 -4 -4 -4 -4 -4 -4 -4 -4 -4 -4 -4 -4 -4 4 4 4 4 4 4 4 4 4 4 19:1 22:1 35:1 
-4 -4 -4 -4 -4 -4 -4 -4 -4 -4 -4 -4 -4 -4 -4 -4 -4 4 4 4 4 4 4 4 4 4 36:1 37:1 38:1 
-4 -4 -4 -4 -4 -4 -4 -4 -4 -4 -4 -4 -4 -4 -4 -4 -4 -4 4 4 4 4 4 4 4 4 39:1 40:1 41:1 
-4 -4 -4 -4 -4 -4 -4 -4 -4 -4 -4 -4 -4 -4 -4 -4 -4 -4 -4 4 4 4 4 4 4 4 11:1 12:1 13:1 42:1 
-4 -4 -4 -4 -4 -4 -4 -4 -4 -4 -4 -4 -4 -4 -4 -4 -4 -4 -4 -4 4 4 4 4 4 4 43:1 44:1 
-4 -4 -4 -4 -4 -4 -4 -4 -4 -4 -4 -4 -4 -4 -4 -4 -4 -4 -4 -4 -4 4 4 4 4 4 3:1 45:1 56:1 
-4 -4 -4 -4 -4 -4 -4 -4 -4 -4 -4 -4 -4 -4 -4 -4 -4 -4 -4 -4 -4 -4 4 4 4 4 18:1 44:1 46:1 
-4 -4 -4 -4 -4 -4 -4 -4 -4 -4 -4 -4 -4 -4 -4 -4 -4 -4 -4 -4 -4 -4 -4 4 4 4 3:1 47:1 48:1 49:1 56:1 
-4 -4 -4 -4 -4 -4 -4 -4 -4 -4 -4 -4 -4 -4 -4 -4 -4 -4 -4 -4 -4 -4 -4 -4 4 4 2:1 50:1 51:1 
-4 -4 -4 -4 -4 -4 -4 -4 -4 -4 -4 -4 -4 -4 -4 -4 -4 -4 -4 -4 -4 -4 -4 -4 -4 4 50:1 52:1 
-4 -4 -4 -4 -4 -4 -4 -4 -4 -4 -4 -4 -4 -4 -4 -4 -4 -4 -4 -4 -4 -4 -4 -4 -4 -4 45:1 53:1 54:1 55:1 
