svm_type c_svc
kernel_type rbf
gamma 0.0078125
nr_class 27
total_sv 29
rho 0 0 0 0 0 0 0 0.999286 0 0 0.999046 0 0 0 0 0 0 0 0 0 0 0 0 0 0 0 0 0 0 0 0 0 0.998365 0 0 0.998121 0 0 0 0 0 0 0 0 0 0 0 0 0 0 0 0 0 0 0 0 0.999521 0 0 0.999282 0 0 0 0 0 0 0 0 0 0 0 0 0 0 0 0 0 0 0 0.999053 0 0 0.998812 0 0 0 0 0 0 0 0 0 0 0 0 0 0 0 0 0 0 0.999521 0 0 0.999759 0 0 0 0 0 0 0 0 0 0 0 0 0 0 0 0 0 0.999286 0 0 0.999046 0 0 0 0 0 0 0 0 0 0 0 0 0 0 0 0 0.998822 0 0 0.99858 0 0 0 0 0 0 0 0 0 0 0 0 0 0 0 0.999519 0 0 0.999281 0 0 0 0 0 0 0 0 0 0 0 0 0 0 0 -0.999756 -0.999286 -0.000238487 -0.998593 -0.999052 -0.999286 -0.99882 -0.999284 -0.998822 -0.998822 -0.998593 -0.999053 -0.999758 -0.998822 -0.999286 -0.998822 -0.999053 -0.998593 0 0.999282 0 0 0 0 0 0 0 0 0 0 0 0 0 0 0 0.99835 0 0 0 0 0 0 0 0 0 0 0 0 0 0 0 -0.99835 -0.999281 -0.999046 -0.998579 -0.998811 -0.99858 -0.99858 -0.99835 -0.998812 -0.999519 -0.99858 -0.999046 -0.99858 -0.998812 -0.99835 0 0 0 0 0 0 0 0 0 0 0 0 0 0 0 0 0 0 0 0 0 0 0 0 0 0 0 0 0 0 0 0 0 0 0 0 0 0 0 0 0 0 0 0 0 0 0 0 0 0 0 0 0 0 0 0 0 0 0 0 0 0 0 0 0 0 0 0 0 0 0 0 0 0 0 0 0 0 0 0 0 0 0 0 0 0 0 0 0 0 0 0 0 0 0 0 0 0 0 0 0 0 0 0 0
label 1 2 3 4 5 6 7 8 9 10 11 12 13 14 15 16 17 18 19 20 21 22 23 24 25 26 27
nr_sv 1 1 1 1 1 1 1 1 2 1 1 2 1 1 1 1 1 1 1 1 1 1 1 1 1 1 1
SV
0.03125 0.03125 0.03125 0.03125 0.03125 0.03125 0.03125 0.03125 0.03125 0.03125 0.03125 0.03125 0.03125 0.03125 0.03125 0.03125 0.03125 0.03125 0.03125 0.03125 0.03125 0.03125 0.03125 0.03125 0.03125 0.03125 1:1 2:1 3:1 4:1 56:1 
-0.03125 0.03125 0.03125 0.03125 0.03125 0.03125 0.03125 0.03125 0.03125 0.03125 0.03125 0.03125 0.03125 0.03125 0.03125 0.03125 0.03125 0.03125 0.03125 0.03125 0.03125 0.03125 0.03125 0.03125 0.03125 0.03125 4:1 5:1 6:1 7:1 8:1 
-0.03125 -0.03125 0.03125 0.03125 0.03125 0.03125 0.03125 0.03125 0.03125 0.03125 0.03125 0.03125 0.03125 0.03125 0.03125 0.03125 0.03125 0.03125 0.03125 0.03125 0.03125 0.03125 0.03125 0.03125 0.03125 0.03125 3:1 9:1 10:1 56:1 
-0.03125 -0.03125 -0.03125 0.03125 0.03125 0.03125 0.03125 0.03125 0.03125 0.03125 0.03125 0.03125 0.03125 0.03125 0.03125 0.03125 0.03125 0.03125 0.03125 0.03125 0.03125 0.03125 0.03125 0.03125 0.03125 0.03125 3:1 11:1 12:1 13:1 14:1 56:1 
-0.03125 -0.03125 -0.03125 -0.03125 0.03125 0.03125 0.03125 0.03125 0.03125 0.03125 0.03125 0.03125 0.03125 0.03125 0.03125 0.03125 0.03125 0.03125 0.03125 0.03125 0.03125 0.03125 0.03125 0.03125 0.03125 0.03125 3:1 15:1 16:1 56:1 
-0.03125 -0.03125 -0.03125 -0.03125 -0.03125 0.03125 0.03125 0.03125 0.03125 0.03125 0.03125 0.03125 0.03125 0.03125 0.03125 0.03125 0.03125 0.03125 0.03125 0.03125 0.03125 0.03125 0.03125 0.03125 0.03125 0.03125 17:1 
-0.03125 -0.03125 -0.03125 -0.03125 -0.03125 -0.03125 0.03125 0.03125 0.03125 0.03125 0.03125 0.03125 0.03125 0.03125 0.03125 0.03125 0.03125 0.03125 0.03125 0.03125 0.03125 0.03125 0.03125 0.03125 0.03125 0.03125 13:1 18:1 38:1 
-0.03125 -0.03125 -0.03125 -0.03125 -0.03125 -0.03125 -0.03125 0.03125 0.03125 0.03125 0.03125 0.03125 0.03125 0.03125 0.03125 0.03125 0.03125 0.03125 0.03125 0.03125 0.03125 0.03125 0.03125 0.03125 0.03125 0.03125 3:1 4:1 19:1 20:1 56:1 
-0 -0 -0 -0 -0 -0 -0 -0 0 0.02478244486366642 0.03125 0 0 0 0 0.01867743300011669 0 0 0 0 0 0 0 0 0 0 3:1 19:1 21:1 22:1 23:1 56:1 
-0.03125 -0.03125 -0.03125 -0.03125 -0.03125 -0.03125 -0.03125 -0.03125 0.03125 0.00646755513633358 0.03125 0.03125 0.03125 0.03125 0.03125 0.01257256699988331 0.03125 0.03125 0.03125 0.03125 0.03125 0.03125 0.03125 0.03125 0.03125 0.03125 3:1 56:1 57:1 
-0.03125 -0.03125 -0.03125 -0.03125 -0.03125 -0.03125 -0.03125 -0.03125 -0.03125 0.03125 0.03125 0.03125 0.03125 0.03125 0.03125 0.03125 0.03125 0.03125 0.03125 0.03125 0.03125 0.03125 0.03125 0.03125 0.03125 0.03125 3:1 22:1 24:1 56:1 
-0.03125 -0.03125 -0.03125 -0.03125 -0.03125 -0.03125 -0.03125 -0.03125 -0.03125 -0.03125 0.03125 0.03125 0.03125 0.03125 0.03125 0.03125 0.03125 0.03125 0.03125 0.03125 0.03125 0.03125 0.03125 0.03125 0.03125 0.03125 21:1 22:1 23:1 25:1 
-0 -0 -0 -0 -0 -0 -0 -0 -0.03125 -0 -0 0 0 0 0 0 0 0 0 0 0 0 0 0 0 0 3:1 15:1 19:1 26:1 56:1 
-0.03125 -0.03125 -0.03125 -0.03125 -0.03125 -0.03125 -0.03125 -0.03125 -0.03125 -0.03125 -0.03125 0.03125 0.03125 0.03125 0.03125 0.03125 0.03125 0.03125 0.03125 0.03125 0.03125 0.03125 0.03125 0.03125 0.03125 0.03125 3:1 15:1 56:1 
-0.03125 -0.03125 -0.03125 -0.03125 -0.03125 -0.03125 -0.03125 -0.03125 -0.03125 -0.03125 -0.03125 -0.03125 0.03125 0.03125 0.03125 0.03125 0.03125 0.03125 0.03125 0.03125 0.03125 0.03125 0.03125 0.03125 0.03125 0.03125 4:1 25:1 27:1 28:1 
-0.03125 -0.03125 -0.03125 -0.03125 -0.03125 -0.03125 -0.03125 -0.03125 -0.03125 -0.03125 -0.03125 -0.03125 -0.03125 0.03125 0.03125 0.03125 0.03125 0.03125 0.03125 0.03125 0.03125 0.03125 0.03125 0.03125 0.03125 0.03125 15:1 18:1 19:1 
-0.03125 -0.03125 -0.03125 -0.03125 -0.03125 -0.03125 -0.03125 -0.03125 -0.03125 -0.03125 -0.03125 -0.03125 -0.03125 -0.03125 0.03125 0.03125 0.03125 0.03125 0.03125 0.03125 0.03125 0.03125 0.03125 0.03125 0.03125 0.03125 3:1 6:1 31:1 32:1 56:1 
-0.03125 -0.03125 -0.03125 -0.03125 -0.03125 -0.03125 -0.03125 -0.03125 -0.03125 -0.03125 -0.03125 -0.03125 -0.03125 -0.03125 -0.03125 0.03125 0.03125 0.03125 0.03125 0.03125 0.03125 0.03125 0.03125 0.03125 0.03125 0.03125 6:1 19:1 33:1 34:1 
-0.03125 -0.03125 -0.03125 -0.03125 -0.03125 -0.03125 -0.03125 -0.03125 -0.03125 -0.03125 -0.03125 -0.03125 -0.03125 -0.03125 -0.03125 -0.03125 0.03125 0.03125 0.03125 0.03125 0.03125 0.03125 0.03125 0.03125 0.03125 0.03125 19:1 22:1 35:1 
-0.03125 -0.03125 -0.03125 -0.03125 -0.03125 -0.03125 -0.03125 -0.03125 -0.03125 -0.03125 -0.03125 -0.03125 -0.03125 -0.03125 -0.03125 -0.03125 -0.03125 0.03125 0.03125 0.03125 0.03125 0.03125 0.03125 0.03125 0.03125 0.03125 36:1 37:1 38:1 
-0.03125 -0.03125 -0.03125 -0.03125 -0.03125 -0.03125 -0.03125 -0.03125 -0.03125 -0.03125 -0.03125 -0.03125 -0.03125 -0.03125 -0.03125 -0.03125 -0.03125 -0.03125 0.03125 0.03125 0.03125 0.03125 0.03125 0.03125 0.03125 0.03125 39:1 40:1 41:1 
-0.03125 -0.03125 -0.03125 -0.03125 -0.03125 -0.03125 -0.03125 -0.03125 -0.03125 -0.03125 -0.03125 -0.03125 -0.03125 -0.03125 -0.03125 -0.03125 -0.03125 -0.03125 -0.03125 0.03125 0.03125 0.03125 0.03125 0.03125 0.03125 0.03125 11:1 12:1 13:1 42:1 
-0.03125 -0.03125 -0.03125 -0.03125 -0.03125 -0.03125 -0.03125 -0.03125 -0.03125 -0.03125 -0.03125 -0.03125 -0.03125 -0.03125 -0.03125 -0.03125 -0.03125 -0.03125 -0.03125 -0.03125 0.03125 0.03125 0.03125 0.03125 0.03125 0.03125 43:1 44:1 
-0.03125 -0.03125 -0.03125 -0.03125 -0.03125 -0.03125 -0.03125 -0.03125 -0.03125 -0.03125 -0.03125 -0.03125 -0.03125 -0.03125 -0.03125 -0.03125 -0.03125 -0.03125 -0.03125 -0.03125 -0.03125 0.03125 0.03125 0.03125 0.03125 0.03125 3:1 45:1 56:1 
-0.03125 -0.03125 -0.03125 -0.03125 -0.03125 -0.03125 -0.03125 -0.03125 -0.03125 -0.03125 -0.03125 -0.03125 -0.03125 -0.03125 -0.03125 -0.03125 -0.03125 -0.03125 -0.03125 -0.03125 -0.03125 -0.03125 0.03125 0.03125 0.03125 0.03125 18:1 44:1 46:1 
-0.03125 -0.03125 -0.03125 -0.03125 -0.03125 -0.03125 -0.03125 -0.03125 -0.03125 -0.03125 -0.03125 -0.03125 -0.03125 -0.03125 -0.03125 -0.03125 -0.03125 -0.03125 -0.03125 -0.03125 -0.03125 -0.03125 -0.03125 0.03125 0.03125 0.03125 3:1 47:1 48:1 49:1 56:1 
-0.03125 -0.03125 -0.03125 -0.03125 -0.03125 -0.03125 -0.03125 -0.03125 -0.03125 -0.03125 -0.03125 -0.03125 -0.03125 -0.03125 -0.03125 -0.03125 -0.03125 -0.03125 -0.03125 -0.03125 -0.03125 -0.03125 -0.03125 -0.03125 0.03125 0.03125 2:1 50:1 51:1 
-0.03125 -0.03125 -0.03125 -0.03125 -0.03125 -0.03125 -0.03125 -0.03125 -0.03125 -0.03125 -0.03125 -0.03125 -0.03125 -0.03125 -0.03125 -0.03125 -0.03125 -0.03125 -0.03125 -0.03125 -0.03125 -0.03125 -0.03125 -0.03125 -0.03125 0.03125 50:1 52:1 
-0.03125 -0.03125 -0.03125 -0.03125 -0.03125 -0.03125 -0.03125 -0.03125 -0.03125 -0.03125 -0.03125 -0.03125 -0.03125 -0.03125 -0.03125 -0.03125 -0.03125 -0.03125 -0.03125 -0.03125 -0.03125 -0.03125 -0.03125 -0.03125 -0.03125 -0.03125 45:1 53:1 54:1 55:1 
